digraph Tree {
node [shape=box] ;
0 [label="promo_days <= 5.5\ngini = 0.4554\nsamples = 592322\nvalue = [207723, 384599]"] ;
1 [label="user_acquisition_month <= 8.5\ngini = 0.0413\nsamples = 194072\nvalue = [4093, 189979]"] ;
0 -> 1 [labeldistance=2.5, labelangle=45, headlabel="True"] ;
2 [label="user_acquisition_month <= 0.5\ngini = 0.0068\nsamples = 131094\nvalue = [444, 130650]"] ;
1 -> 2 ;
3 [label="gini = 0.0\nsamples = 15\nvalue = [15, 0]"] ;
2 -> 3 ;
4 [label="user_msa_id <= 39.5\ngini = 0.0065\nsamples = 131079\nvalue = [429, 130650]"] ;
2 -> 4 ;
5 [label="promo_days <= 4.5\ngini = 0.006\nsamples = 130850\nvalue = [394, 130456]"] ;
4 -> 5 ;
6 [label="gini = 0.0056\nsamples = 130613\nvalue = [364, 130249]"] ;
5 -> 6 ;
7 [label="gini = 0.2211\nsamples = 237\nvalue = [30, 207]"] ;
5 -> 7 ;
8 [label="user_acquisition_month <= 1.5\ngini = 0.259\nsamples = 229\nvalue = [35, 194]"] ;
4 -> 8 ;
9 [label="gini = 0.4786\nsamples = 58\nvalue = [23, 35]"] ;
8 -> 9 ;
10 [label="gini = 0.1305\nsamples = 171\nvalue = [12, 159]"] ;
8 -> 10 ;
11 [label="user_acquisition_month <= 9.5\ngini = 0.1092\nsamples = 62978\nvalue = [3649, 59329]"] ;
1 -> 11 ;
12 [label="user_msa_id <= 9.5\ngini = 0.2772\nsamples = 19962\nvalue = [3318, 16644]"] ;
11 -> 12 ;
13 [label="is_organic <= 0.5\ngini = 0.1739\nsamples = 14116\nvalue = [1358, 12758]"] ;
12 -> 13 ;
14 [label="gini = 0.0291\nsamples = 2231\nvalue = [33, 2198]"] ;
13 -> 14 ;
15 [label="gini = 0.1981\nsamples = 11885\nvalue = [1325, 10560]"] ;
13 -> 15 ;
16 [label="is_organic <= 0.5\ngini = 0.4457\nsamples = 5846\nvalue = [1960, 3886]"] ;
12 -> 16 ;
17 [label="gini = 0.0591\nsamples = 1377\nvalue = [42, 1335]"] ;
16 -> 17 ;
18 [label="gini = 0.49\nsamples = 4469\nvalue = [1918, 2551]"] ;
16 -> 18 ;
19 [label="is_onboarded <= 0.5\ngini = 0.0153\nsamples = 43016\nvalue = [331, 42685]"] ;
11 -> 19 ;
20 [label="user_msa_id <= 4.5\ngini = 0.0898\nsamples = 2674\nvalue = [126, 2548]"] ;
19 -> 20 ;
21 [label="gini = 0.1608\nsamples = 1021\nvalue = [90, 931]"] ;
20 -> 21 ;
22 [label="gini = 0.0426\nsamples = 1653\nvalue = [36, 1617]"] ;
20 -> 22 ;
23 [label="user_acquisition_month <= 10.5\ngini = 0.0101\nsamples = 40342\nvalue = [205, 40137]"] ;
19 -> 23 ;
24 [label="gini = 0.0044\nsamples = 16351\nvalue = [36, 16315]"] ;
23 -> 24 ;
25 [label="gini = 0.014\nsamples = 23991\nvalue = [169, 23822]"] ;
23 -> 25 ;
26 [label="user_acquisition_month <= 1.5\ngini = 0.4997\nsamples = 398250\nvalue = [203630, 194620]"] ;
0 -> 26 [labeldistance=2.5, labelangle=-45, headlabel="False"] ;
27 [label="reservations_attended_count <= 5.5\ngini = 0.3626\nsamples = 71074\nvalue = [54163, 16911]"] ;
26 -> 27 ;
28 [label="promo_days <= 26.5\ngini = 0.2343\nsamples = 55789\nvalue = [48229, 7560]"] ;
27 -> 28 ;
29 [label="reservations_attended_count <= 3.5\ngini = 0.4998\nsamples = 8512\nvalue = [4171, 4341]"] ;
28 -> 29 ;
30 [label="gini = 0.4955\nsamples = 5246\nvalue = [2871, 2375]"] ;
29 -> 30 ;
31 [label="gini = 0.4792\nsamples = 3266\nvalue = [1300, 1966]"] ;
29 -> 31 ;
32 [label="promo_days <= 59.5\ngini = 0.1269\nsamples = 47277\nvalue = [44058, 3219]"] ;
28 -> 32 ;
33 [label="gini = 0.118\nsamples = 46864\nvalue = [43914, 2950]"] ;
32 -> 33 ;
34 [label="gini = 0.4542\nsamples = 413\nvalue = [144, 269]"] ;
32 -> 34 ;
35 [label="reservations_attended_count <= 10.5\ngini = 0.475\nsamples = 15285\nvalue = [5934, 9351]"] ;
27 -> 35 ;
36 [label="promo_days <= 29.5\ngini = 0.4995\nsamples = 10614\nvalue = [5132, 5482]"] ;
35 -> 36 ;
37 [label="gini = 0.4378\nsamples = 5046\nvalue = [1633, 3413]"] ;
36 -> 37 ;
38 [label="gini = 0.467\nsamples = 5568\nvalue = [3499, 2069]"] ;
36 -> 38 ;
39 [label="promo_days <= 19.5\ngini = 0.2844\nsamples = 4671\nvalue = [802, 3869]"] ;
35 -> 39 ;
40 [label="gini = 0.4301\nsamples = 1447\nvalue = [453, 994]"] ;
39 -> 40 ;
41 [label="gini = 0.1931\nsamples = 3224\nvalue = [349, 2875]"] ;
39 -> 41 ;
42 [label="reservations_attended_count <= 5.5\ngini = 0.4963\nsamples = 327176\nvalue = [149467, 177709]"] ;
26 -> 42 ;
43 [label="avg_class_rating <= 3.5227\ngini = 0.4996\nsamples = 235341\nvalue = [121194, 114147]"] ;
42 -> 43 ;
44 [label="promo_days <= 28.5\ngini = 0.4753\nsamples = 54864\nvalue = [33523, 21341]"] ;
43 -> 44 ;
45 [label="gini = 0.3895\nsamples = 16657\nvalue = [12244, 4413]"] ;
44 -> 45 ;
46 [label="gini = 0.4935\nsamples = 38207\nvalue = [21279, 16928]"] ;
44 -> 46 ;
47 [label="is_onboarded <= 0.5\ngini = 0.4996\nsamples = 180477\nvalue = [87671, 92806]"] ;
43 -> 47 ;
48 [label="gini = 0.4969\nsamples = 88039\nvalue = [47491, 40548]"] ;
47 -> 48 ;
49 [label="gini = 0.4915\nsamples = 92438\nvalue = [40180, 52258]"] ;
47 -> 49 ;
50 [label="is_onboarded <= 0.5\ngini = 0.4262\nsamples = 91835\nvalue = [28273, 63562]"] ;
42 -> 50 ;
51 [label="reservations_attended_count <= 10.5\ngini = 0.4896\nsamples = 25770\nvalue = [11028, 14742]"] ;
50 -> 51 ;
52 [label="gini = 0.4995\nsamples = 15475\nvalue = [7500, 7975]"] ;
51 -> 52 ;
53 [label="gini = 0.4505\nsamples = 10295\nvalue = [3528, 6767]"] ;
51 -> 53 ;
54 [label="promo_days <= 16.5\ngini = 0.3858\nsamples = 66065\nvalue = [17245, 48820]"] ;
50 -> 54 ;
55 [label="gini = 0.4732\nsamples = 24637\nvalue = [9469, 15168]"] ;
54 -> 55 ;
56 [label="gini = 0.3049\nsamples = 41428\nvalue = [7776, 33652]"] ;
54 -> 56 ;
}